digraph Tree {
node [shape=box, style="filled, rounded", color="black", fontname=helvetica] ;
edge [fontname=helvetica] ;
0 [label="BoxOfficeFirst <= 24805441.0\nmse = 1.020594438865568e+16\nsamples = 115\nvalue = 99389026.043", fillcolor="#f9e1d0"] ;
1 [label="BoxOfficeFirst <= 16314431.0\nmse = 1898067175855654.5\nsamples = 82\nvalue = 49290554.098", fillcolor="#fcf0e8"] ;
0 -> 1 [labeldistance=2.5, labelangle=45, headlabel="True"] ;
2 [label="BoxOfficeFirst <= 10027990.5\nmse = 384427599702357.1\nsamples = 59\nvalue = 31730946.458", fillcolor="#fdf6f0"] ;
1 -> 2 ;
3 [label="ScreenFirst <= 568.5\nmse = 259589393625326.56\nsamples = 34\nvalue = 21802964.029", fillcolor="#fef9f5"] ;
2 -> 3 ;
4 [label="mse = 0.0\nsamples = 1\nvalue = 93246388.0", fillcolor="#f9e3d3"] ;
3 -> 4 ;
5 [label="BoxOfficeFirst <= 6069382.0\nmse = 108097119810665.5\nsamples = 33\nvalue = 19638011.788", fillcolor="#fef9f6"] ;
3 -> 5 ;
6 [label="Users <= 6467.5\nmse = 21868957864347.555\nsamples = 10\nvalue = 6597677.2", fillcolor="#fffdfc"] ;
5 -> 6 ;
7 [label="BoxOfficeFirst <= 927991.5\nmse = 896028829623.688\nsamples = 4\nvalue = 1274746.75", fillcolor="#ffffff"] ;
6 -> 7 ;
8 [label="BoxOfficeFirst <= 548952.0\nmse = 93840749064.222\nsamples = 3\nvalue = 750136.333", fillcolor="#ffffff"] ;
7 -> 8 ;
9 [label="Rating <= 3.7\nmse = 2963562.25\nsamples = 2\nvalue = 533527.5", fillcolor="#ffffff"] ;
8 -> 9 ;
10 [label="mse = 0.0\nsamples = 1\nvalue = 531806.0", fillcolor="#ffffff"] ;
9 -> 10 ;
11 [label="mse = 0.0\nsamples = 1\nvalue = 535249.0", fillcolor="#ffffff"] ;
9 -> 11 ;
12 [label="mse = 0.0\nsamples = 1\nvalue = 1183354.0", fillcolor="#ffffff"] ;
8 -> 12 ;
13 [label="mse = 0.0\nsamples = 1\nvalue = 2848578.0", fillcolor="#fffefe"] ;
7 -> 13 ;
14 [label="BoxOfficeFirst <= 2761227.0\nmse = 4369145470233.25\nsamples = 6\nvalue = 10146297.5", fillcolor="#fefcfa"] ;
6 -> 14 ;
15 [label="mse = 0.0\nsamples = 1\nvalue = 6350058.0", fillcolor="#fffdfc"] ;
14 -> 15 ;
16 [label="ScreenFirst <= 2548.0\nmse = 1784230322353.422\nsamples = 5\nvalue = 10905545.4", fillcolor="#fefcfa"] ;
14 -> 16 ;
17 [label="BoxOfficeFirst <= 4328263.5\nmse = 59320674870.219\nsamples = 3\nvalue = 11842439.333", fillcolor="#fefcfa"] ;
16 -> 17 ;
18 [label="mse = 0.0\nsamples = 1\nvalue = 11538204.0", fillcolor="#fefcfa"] ;
17 -> 18 ;
19 [label="ScreenFirst <= 2283.0\nmse = 19561658769.0\nsamples = 2\nvalue = 11994557.0", fillcolor="#fefcfa"] ;
17 -> 19 ;
20 [label="mse = 0.0\nsamples = 1\nvalue = 12134420.0", fillcolor="#fefbf9"] ;
19 -> 20 ;
21 [label="mse = 0.0\nsamples = 1\nvalue = 11854694.0", fillcolor="#fefcfa"] ;
19 -> 21 ;
22 [label="BoxOfficeFirst <= 4711430.0\nmse = 1079956384890.25\nsamples = 2\nvalue = 9500204.5", fillcolor="#fefcfb"] ;
16 -> 22 ;
23 [label="mse = 0.0\nsamples = 1\nvalue = 8460995.0", fillcolor="#fffdfb"] ;
22 -> 23 ;
24 [label="mse = 0.0\nsamples = 1\nvalue = 10539414.0", fillcolor="#fefcfa"] ;
22 -> 24 ;
25 [label="Rating <= 4.7\nmse = 39507081273028.625\nsamples = 23\nvalue = 25307722.478", fillcolor="#fdf7f3"] ;
5 -> 25 ;
26 [label="Users <= 6868.5\nmse = 5249629455436.25\nsamples = 3\nvalue = 17493568.333", fillcolor="#fefaf7"] ;
25 -> 26 ;
27 [label="Users <= 4617.5\nmse = 1756556598552.25\nsamples = 2\nvalue = 18921607.5", fillcolor="#fef9f6"] ;
26 -> 27 ;
28 [label="mse = 0.0\nsamples = 1\nvalue = 20246959.0", fillcolor="#fef9f6"] ;
27 -> 28 ;
29 [label="mse = 0.0\nsamples = 1\nvalue = 17596256.0", fillcolor="#fefaf7"] ;
27 -> 29 ;
30 [label="mse = 0.0\nsamples = 1\nvalue = 14637490.0", fillcolor="#fefbf8"] ;
26 -> 30 ;
31 [label="Rating <= 4.85\nmse = 34112675683048.754\nsamples = 20\nvalue = 26479845.6", fillcolor="#fdf7f3"] ;
25 -> 31 ;
32 [label="mse = 0.0\nsamples = 1\nvalue = 42776259.0", fillcolor="#fcf2eb"] ;
31 -> 32 ;
33 [label="BoxOfficeFirst <= 9203040.5\nmse = 21194889101065.0\nsamples = 19\nvalue = 25622139.632", fillcolor="#fdf7f3"] ;
31 -> 33 ;
34 [label="Rating <= 6.2\nmse = 13179267358917.188\nsamples = 13\nvalue = 23539306.154", fillcolor="#fef8f4"] ;
33 -> 34 ;
35 [label="Users <= 14012.5\nmse = 6462348347948.0\nsamples = 7\nvalue = 25744141.714", fillcolor="#fdf7f3"] ;
34 -> 35 ;
36 [label="ScreenFirst <= 2144.5\nmse = 2525063027162.25\nsamples = 4\nvalue = 24079746.75", fillcolor="#fef8f4"] ;
35 -> 36 ;
37 [label="mse = 0.0\nsamples = 1\nvalue = 21520719.0", fillcolor="#fef9f5"] ;
36 -> 37 ;
38 [label="Rating <= 5.6\nmse = 456251580540.625\nsamples = 3\nvalue = 24932756.0", fillcolor="#fdf8f3"] ;
36 -> 38 ;
39 [label="Users <= 8661.5\nmse = 89947207744.0\nsamples = 2\nvalue = 25377889.0", fillcolor="#fdf7f3"] ;
38 -> 39 ;
40 [label="mse = 0.0\nsamples = 1\nvalue = 25077977.0", fillcolor="#fdf8f3"] ;
39 -> 40 ;
41 [label="mse = 0.0\nsamples = 1\nvalue = 25677801.0", fillcolor="#fdf7f3"] ;
39 -> 41 ;
42 [label="mse = 0.0\nsamples = 1\nvalue = 24042490.0", fillcolor="#fef8f4"] ;
38 -> 42 ;
43 [label="Rating <= 5.6\nmse = 3093629140116.625\nsamples = 3\nvalue = 27963335.0", fillcolor="#fdf7f2"] ;
35 -> 43 ;
44 [label="mse = 0.0\nsamples = 1\nvalue = 30212620.0", fillcolor="#fdf6f1"] ;
43 -> 44 ;
45 [label="Users <= 20269.5\nmse = 845981451756.25\nsamples = 2\nvalue = 26838692.5", fillcolor="#fdf7f2"] ;
43 -> 45 ;
46 [label="mse = 0.0\nsamples = 1\nvalue = 25918920.0", fillcolor="#fdf7f3"] ;
45 -> 46 ;
47 [label="mse = 0.0\nsamples = 1\nvalue = 27758465.0", fillcolor="#fdf7f2"] ;
45 -> 47 ;
48 [label="Users <= 11742.5\nmse = 8727387143362.312\nsamples = 6\nvalue = 20966998.0", fillcolor="#fef9f5"] ;
34 -> 48 ;
49 [label="mse = 0.0\nsamples = 1\nvalue = 26161406.0", fillcolor="#fdf7f3"] ;
48 -> 49 ;
50 [label="BoxOfficeFirst <= 8515721.5\nmse = 3997214699123.5\nsamples = 5\nvalue = 19928116.4", fillcolor="#fef9f6"] ;
48 -> 50 ;
51 [label="Users <= 47908.0\nmse = 1568797919000.25\nsamples = 4\nvalue = 19100140.5", fillcolor="#fef9f6"] ;
50 -> 51 ;
52 [label="ScreenFirst <= 2366.5\nmse = 261649190642.0\nsamples = 3\nvalue = 18423738.0", fillcolor="#fefaf6"] ;
51 -> 52 ;
53 [label="mse = 0.0\nsamples = 1\nvalue = 19057024.0", fillcolor="#fef9f6"] ;
52 -> 53 ;
54 [label="BoxOfficeFirst <= 7317230.0\nmse = 91685417616.0\nsamples = 2\nvalue = 18107095.0", fillcolor="#fefaf7"] ;
52 -> 54 ;
55 [label="mse = 0.0\nsamples = 1\nvalue = 18409891.0", fillcolor="#fefaf6"] ;
54 -> 55 ;
56 [label="mse = 0.0\nsamples = 1\nvalue = 17804299.0", fillcolor="#fefaf7"] ;
54 -> 56 ;
57 [label="mse = 0.0\nsamples = 1\nvalue = 21129348.0", fillcolor="#fef9f5"] ;
51 -> 57 ;
58 [label="mse = 0.0\nsamples = 1\nvalue = 23240020.0", fillcolor="#fef8f4"] ;
50 -> 58 ;
59 [label="Rating <= 6.4\nmse = 8797229595074.125\nsamples = 6\nvalue = 30134945.5", fillcolor="#fdf6f1"] ;
33 -> 59 ;
60 [label="mse = 0.0\nsamples = 1\nvalue = 23580735.0", fillcolor="#fef8f4"] ;
59 -> 60 ;
61 [label="Users <= 38895.5\nmse = 246833447294.875\nsamples = 5\nvalue = 31445787.6", fillcolor="#fdf6f0"] ;
59 -> 61 ;
62 [label="Users <= 28459.5\nmse = 48767480702.75\nsamples = 4\nvalue = 31217851.5", fillcolor="#fdf6f0"] ;
61 -> 62 ;
63 [label="Users <= 15026.0\nmse = 5203768150.375\nsamples = 3\nvalue = 31095561.333", fillcolor="#fdf6f0"] ;
62 -> 63 ;
64 [label="mse = 0.0\nsamples = 2\nvalue = 31146570.0", fillcolor="#fdf6f0"] ;
63 -> 64 ;
65 [label="mse = 0.0\nsamples = 1\nvalue = 30993544.0", fillcolor="#fdf6f0"] ;
63 -> 65 ;
66 [label="mse = 0.0\nsamples = 1\nvalue = 31584722.0", fillcolor="#fdf6f0"] ;
62 -> 66 ;
67 [label="mse = 0.0\nsamples = 1\nvalue = 32357532.0", fillcolor="#fdf5f0"] ;
61 -> 67 ;
68 [label="BoxOfficeFirst <= 10358333.5\nmse = 237853865246358.25\nsamples = 25\nvalue = 45233002.56", fillcolor="#fcf1ea"] ;
2 -> 68 ;
69 [label="mse = 0.0\nsamples = 1\nvalue = 83188165.0", fillcolor="#fae6d8"] ;
68 -> 69 ;
70 [label="BoxOfficeFirst <= 11773702.5\nmse = 185238646270217.75\nsamples = 24\nvalue = 43651537.458", fillcolor="#fcf2ea"] ;
68 -> 70 ;
71 [label="Users <= 4368.5\nmse = 14499218638574.0\nsamples = 3\nvalue = 29948810.0", fillcolor="#fdf6f1"] ;
70 -> 71 ;
72 [label="mse = 0.0\nsamples = 1\nvalue = 24708699.0", fillcolor="#fdf8f3"] ;
71 -> 72 ;
73 [label="BoxOfficeFirst <= 11104728.0\nmse = 1154755488620.25\nsamples = 2\nvalue = 32568865.5", fillcolor="#fdf5f0"] ;
71 -> 73 ;
74 [label="mse = 0.0\nsamples = 1\nvalue = 31494270.0", fillcolor="#fdf6f0"] ;
73 -> 74 ;
75 [label="mse = 0.0\nsamples = 1\nvalue = 33643461.0", fillcolor="#fdf5ef"] ;
73 -> 75 ;
76 [label="Rating <= 4.9\nmse = 178974525352719.75\nsamples = 21\nvalue = 45609069.952", fillcolor="#fcf1e9"] ;
70 -> 76 ;
77 [label="ScreenFirst <= 3056.5\nmse = 234138459096896.5\nsamples = 6\nvalue = 53229820.0", fillcolor="#fcefe6"] ;
76 -> 77 ;
78 [label="Users <= 27188.0\nmse = 61960409920542.0\nsamples = 2\nvalue = 70821877.5", fillcolor="#fbeadd"] ;
77 -> 78 ;
79 [label="mse = 0.0\nsamples = 1\nvalue = 62950384.0", fillcolor="#fbece1"] ;
78 -> 79 ;
80 [label="mse = -1.0\nsamples = 1\nvalue = 78693371.0", fillcolor="#fae7da"] ;
78 -> 80 ;
81 [label="BoxOfficeFirst <= 13144886.0\nmse = 88117118372594.5\nsamples = 4\nvalue = 44433791.25", fillcolor="#fcf2ea"] ;
77 -> 81 ;
82 [label="Users <= 9870.0\nmse = 9519273706699.25\nsamples = 3\nvalue = 39238355.333", fillcolor="#fdf3ed"] ;
81 -> 82 ;
83 [label="mse = 0.0\nsamples = 1\nvalue = 43575716.0", fillcolor="#fcf2ea"] ;
82 -> 83 ;
84 [label="Rating <= 3.95\nmse = 169387395489.0\nsamples = 2\nvalue = 37069675.0", fillcolor="#fdf4ee"] ;
82 -> 84 ;
85 [label="mse = 0.0\nsamples = 1\nvalue = 36658108.0", fillcolor="#fdf4ee"] ;
84 -> 85 ;
86 [label="mse = 0.0\nsamples = 1\nvalue = 37481242.0", fillcolor="#fdf4ed"] ;
84 -> 86 ;
87 [label="mse = 0.0\nsamples = 1\nvalue = 60020099.0", fillcolor="#fbede3"] ;
81 -> 87 ;
88 [label="ScreenFirst <= 3054.5\nmse = 124386486333609.5\nsamples = 15\nvalue = 42560769.933", fillcolor="#fcf2eb"] ;
76 -> 88 ;
89 [label="BoxOfficeFirst <= 13074253.5\nmse = 95258223910923.02\nsamples = 12\nvalue = 39139978.25", fillcolor="#fdf3ed"] ;
88 -> 89 ;
90 [label="Users <= 10904.0\nmse = 23718467548728.875\nsamples = 5\nvalue = 32219832.6", fillcolor="#fdf5f0"] ;
89 -> 90 ;
91 [label="mse = 0.0\nsamples = 1\nvalue = 24268828.0", fillcolor="#fef8f4"] ;
90 -> 91 ;
92 [label="ScreenFirst <= 2923.0\nmse = 9892311264279.75\nsamples = 4\nvalue = 34207583.75", fillcolor="#fdf5ef"] ;
90 -> 92 ;
93 [label="BoxOfficeFirst <= 12365813.0\nmse = 1018621815672.125\nsamples = 3\nvalue = 32463226.667", fillcolor="#fdf5f0"] ;
92 -> 93 ;
94 [label="Rating <= 5.75\nmse = 208675376100.0\nsamples = 2\nvalue = 33126365.0", fillcolor="#fdf5ef"] ;
93 -> 94 ;
95 [label="mse = 0.0\nsamples = 1\nvalue = 32669555.0", fillcolor="#fdf5f0"] ;
94 -> 95 ;
96 [label="mse = 0.0\nsamples = 1\nvalue = 33583175.0", fillcolor="#fdf5ef"] ;
94 -> 96 ;
97 [label="mse = 0.0\nsamples = 1\nvalue = 31136950.0", fillcolor="#fdf6f0"] ;
93 -> 97 ;
98 [label="mse = 0.0\nsamples = 1\nvalue = 39440655.0", fillcolor="#fdf3ec"] ;
92 -> 98 ;
99 [label="Rating <= 6.9\nmse = 87719173373044.5\nsamples = 7\nvalue = 44082939.429", fillcolor="#fcf2ea"] ;
89 -> 99 ;
100 [label="Rating <= 5.85\nmse = 16995590618716.5\nsamples = 5\nvalue = 49393229.6", fillcolor="#fcf0e8"] ;
99 -> 100 ;
101 [label="ScreenFirst <= 2659.0\nmse = 4539324263761.0\nsamples = 2\nvalue = 44869916.0", fillcolor="#fcf2ea"] ;
100 -> 101 ;
102 [label="mse = 0.0\nsamples = 1\nvalue = 42739347.0", fillcolor="#fcf2eb"] ;
101 -> 102 ;
103 [label="mse = 0.0\nsamples = 1\nvalue = 47000485.0", fillcolor="#fcf1e9"] ;
101 -> 103 ;
104 [label="BoxOfficeFirst <= 13780494.0\nmse = 2566028273192.5\nsamples = 3\nvalue = 52408772.0", fillcolor="#fcefe6"] ;
100 -> 104 ;
105 [label="Users <= 31627.5\nmse = 235019889732.5\nsamples = 2\nvalue = 53506348.5", fillcolor="#fcefe6"] ;
104 -> 105 ;
106 [label="mse = 0.0\nsamples = 1\nvalue = 53021560.0", fillcolor="#fcefe6"] ;
105 -> 106 ;
107 [label="mse = 0.0\nsamples = 1\nvalue = 53991137.0", fillcolor="#fcefe5"] ;
105 -> 107 ;
108 [label="mse = 0.0\nsamples = 1\nvalue = 50213619.0", fillcolor="#fcf0e7"] ;
104 -> 108 ;
109 [label="ScreenFirst <= 2836.5\nmse = 17785290342120.0\nsamples = 2\nvalue = 30807214.0", fillcolor="#fdf6f1"] ;
99 -> 109 ;
110 [label="mse = 0.0\nsamples = 1\nvalue = 26589953.0", fillcolor="#fdf7f3"] ;
109 -> 110 ;
111 [label="mse = 0.0\nsamples = 1\nvalue = 35024475.0", fillcolor="#fdf5ef"] ;
109 -> 111 ;
112 [label="BoxOfficeFirst <= 13600617.0\nmse = 6863221209106.5\nsamples = 3\nvalue = 56243936.667", fillcolor="#fceee4"] ;
88 -> 112 ;
113 [label="mse = 0.0\nsamples = 1\nvalue = 59699513.0", fillcolor="#fbede3"] ;
112 -> 113 ;
114 [label="Rating <= 6.65\nmse = 1339075967040.5\nsamples = 2\nvalue = 54516148.5", fillcolor="#fcefe5"] ;
112 -> 114 ;
115 [label="mse = 0.0\nsamples = 1\nvalue = 53358964.0", fillcolor="#fcefe6"] ;
114 -> 115 ;
116 [label="mse = 0.0\nsamples = 1\nvalue = 55673333.0", fillcolor="#fceee5"] ;
114 -> 116 ;
117 [label="ScreenFirst <= 3079.5\nmse = 2960942135049965.0\nsamples = 23\nvalue = 94334765.0", fillcolor="#f9e2d2"] ;
1 -> 117 ;
118 [label="BoxOfficeFirst <= 24495503.0\nmse = 500852824576938.0\nsamples = 15\nvalue = 69230053.867", fillcolor="#fbeade"] ;
117 -> 118 ;
119 [label="Rating <= 7.35\nmse = 279151932802248.5\nsamples = 14\nvalue = 65086978.571", fillcolor="#fbebe0"] ;
118 -> 119 ;
120 [label="Users <= 29278.0\nmse = 155998745512377.5\nsamples = 12\nvalue = 60177214.0", fillcolor="#fbede3"] ;
119 -> 120 ;
121 [label="Rating <= 5.8\nmse = 100738205409716.5\nsamples = 5\nvalue = 49225775.2", fillcolor="#fcf0e8"] ;
120 -> 121 ;
122 [label="BoxOfficeFirst <= 22298368.0\nmse = 10641723562674.75\nsamples = 3\nvalue = 41460953.0", fillcolor="#fcf3eb"] ;
121 -> 122 ;
123 [label="Users <= 10085.5\nmse = 2670129206809.0\nsamples = 2\nvalue = 39356002.0", fillcolor="#fdf3ec"] ;
122 -> 123 ;
124 [label="mse = 0.0\nsamples = 1\nvalue = 37721949.0", fillcolor="#fdf4ed"] ;
123 -> 124 ;
125 [label="mse = 0.0\nsamples = 1\nvalue = 40990055.0", fillcolor="#fcf3ec"] ;
123 -> 125 ;
126 [label="mse = 0.0\nsamples = 1\nvalue = 45670855.0", fillcolor="#fcf1e9"] ;
122 -> 126 ;
127 [label="ScreenFirst <= 2641.5\nmse = 9786188939232.5\nsamples = 2\nvalue = 60873008.5", fillcolor="#fbede2"] ;
121 -> 127 ;
128 [label="mse = 0.0\nsamples = 1\nvalue = 57744720.0", fillcolor="#fbeee4"] ;
127 -> 128 ;
129 [label="mse = 0.0\nsamples = 1\nvalue = 64001297.0", fillcolor="#fbece1"] ;
127 -> 129 ;
130 [label="ScreenFirst <= 2883.5\nmse = 48612586250835.0\nsamples = 7\nvalue = 67999670.286", fillcolor="#fbeadf"] ;
120 -> 130 ;
131 [label="BoxOfficeFirst <= 17116644.5\nmse = 17169866625912.5\nsamples = 4\nvalue = 63708056.75", fillcolor="#fbece1"] ;
130 -> 131 ;
132 [label="Rating <= 6.2\nmse = 15021443844.0\nsamples = 2\nvalue = 67753719.0", fillcolor="#fbebdf"] ;
131 -> 132 ;
133 [label="mse = 0.0\nsamples = 1\nvalue = 67631157.0", fillcolor="#fbebdf"] ;
132 -> 133 ;
134 [label="mse = 0.0\nsamples = 1\nvalue = 67876281.0", fillcolor="#fbebdf"] ;
132 -> 134 ;
135 [label="Users <= 63462.5\nmse = 1589945725831.0\nsamples = 2\nvalue = 59662394.5", fillcolor="#fbede3"] ;
131 -> 135 ;
136 [label="mse = 0.0\nsamples = 1\nvalue = 60923325.0", fillcolor="#fbede2"] ;
135 -> 136 ;
137 [label="mse = 0.0\nsamples = 1\nvalue = 58401464.0", fillcolor="#fbede3"] ;
135 -> 137 ;
138 [label="Users <= 37510.0\nmse = 33235933670957.0\nsamples = 3\nvalue = 73721821.667", fillcolor="#fae9dc"] ;
130 -> 138 ;
139 [label="Rating <= 5.55\nmse = 8758285113600.0\nsamples = 2\nvalue = 70020668.0", fillcolor="#fbeade"] ;
138 -> 139 ;
140 [label="mse = 0.0\nsamples = 1\nvalue = 67061228.0", fillcolor="#fbebdf"] ;
139 -> 140 ;
141 [label="mse = 0.0\nsamples = 1\nvalue = 72980108.0", fillcolor="#fae9dc"] ;
139 -> 141 ;
142 [label="mse = -1.0\nsamples = 1\nvalue = 81124129.0", fillcolor="#fae6d8"] ;
138 -> 142 ;
143 [label="Users <= 137194.5\nmse = 5627954373560.0\nsamples = 2\nvalue = 94545566.0", fillcolor="#f9e2d2"] ;
119 -> 143 ;
144 [label="mse = 0.0\nsamples = 1\nvalue = 92173235.0", fillcolor="#f9e3d3"] ;
143 -> 144 ;
145 [label="mse = 0.0\nsamples = 1\nvalue = 96917897.0", fillcolor="#f9e2d1"] ;
143 -> 145 ;
146 [label="mse = -8.0\nsamples = 1\nvalue = 127233108.0", fillcolor="#f7d8c2"] ;
118 -> 146 ;
147 [label="ScreenFirst <= 3152.5\nmse = 4176186939446292.0\nsamples = 8\nvalue = 141406098.375", fillcolor="#f6d4bc"] ;
117 -> 147 ;
148 [label="Users <= 40141.0\nmse = 993224345073440.0\nsamples = 2\nvalue = 227289000.0", fillcolor="#f1ba93"] ;
147 -> 148 ;
149 [label="mse = 0.0\nsamples = 1\nvalue = 195773538.0", fillcolor="#f3c4a2"] ;
148 -> 149 ;
150 [label="mse = 0.0\nsamples = 1\nvalue = 258804462.0", fillcolor="#efb084"] ;
148 -> 150 ;
151 [label="Users <= 64717.5\nmse = 1959008785779722.0\nsamples = 6\nvalue = 112778464.5", fillcolor="#f8ddc9"] ;
147 -> 151 ;
152 [label="BoxOfficeFirst <= 18315405.0\nmse = 1060559126597004.0\nsamples = 5\nvalue = 98114157.4", fillcolor="#f9e1d0"] ;
151 -> 152 ;
153 [label="Users <= 26952.0\nmse = 671248610473156.0\nsamples = 2\nvalue = 126077534.0", fillcolor="#f7d9c3"] ;
152 -> 153 ;
154 [label="mse = 0.0\nsamples = 1\nvalue = 100169068.0", fillcolor="#f9e1cf"] ;
153 -> 154 ;
155 [label="mse = 0.0\nsamples = 1\nvalue = 151986000.0", fillcolor="#f5d1b7"] ;
153 -> 155 ;
156 [label="BoxOfficeFirst <= 20849822.0\nmse = 451265658597985.0\nsamples = 3\nvalue = 79471906.333", fillcolor="#fae7d9"] ;
152 -> 156 ;
157 [label="mse = 0.0\nsamples = 1\nvalue = 52474616.0", fillcolor="#fcefe6"] ;
156 -> 157 ;
158 [label="ScreenFirst <= 3381.0\nmse = 130258223890256.0\nsamples = 2\nvalue = 92970551.5", fillcolor="#f9e3d3"] ;
156 -> 158 ;
159 [label="mse = 0.0\nsamples = 1\nvalue = 81557479.0", fillcolor="#fae6d8"] ;
158 -> 159 ;
160 [label="mse = 0.0\nsamples = 1\nvalue = 104383624.0", fillcolor="#f8dfcd"] ;
158 -> 160 ;
161 [label="mse = 0.0\nsamples = 1\nvalue = 186100000.0", fillcolor="#f3c7a6"] ;
151 -> 161 ;
162 [label="Users <= 90122.0\nmse = 9116105318617384.0\nsamples = 33\nvalue = 223876138.152", fillcolor="#f1bb94"] ;
0 -> 162 [labeldistance=2.5, labelangle=-45, headlabel="False"] ;
163 [label="Users <= 29300.5\nmse = 7010848713274344.0\nsamples = 22\nvalue = 182815228.0", fillcolor="#f4c8a8"] ;
162 -> 163 ;
164 [label="Users <= 13500.0\nmse = 208358251322424.0\nsamples = 3\nvalue = 78472125.0", fillcolor="#fae7da"] ;
163 -> 164 ;
165 [label="mse = 0.0\nsamples = 1\nvalue = 60072596.0", fillcolor="#fbede3"] ;
164 -> 165 ;
166 [label="BoxOfficeFirst <= 33651983.0\nmse = 58630376417256.0\nsamples = 2\nvalue = 87671889.5", fillcolor="#fae5d5"] ;
164 -> 166 ;
167 [label="mse = 0.0\nsamples = 1\nvalue = 80014842.0", fillcolor="#fae7d9"] ;
166 -> 167 ;
168 [label="mse = 0.0\nsamples = 1\nvalue = 95328937.0", fillcolor="#f9e2d2"] ;
166 -> 168 ;
169 [label="Rating <= 4.95\nmse = 6094416771028161.0\nsamples = 19\nvalue = 199290454.789", fillcolor="#f3c3a0"] ;
163 -> 169 ;
170 [label="ScreenFirst <= 3818.5\nmse = 92244192019456.0\nsamples = 2\nvalue = 310127497.0", fillcolor="#eca16b"] ;
169 -> 170 ;
171 [label="mse = 0.0\nsamples = 1\nvalue = 319731881.0", fillcolor="#eb9e67"] ;
170 -> 171 ;
172 [label="mse = 0.0\nsamples = 1\nvalue = 300523113.0", fillcolor="#eca470"] ;
170 -> 172 ;
173 [label="Users <= 31927.0\nmse = 5185245734692968.0\nsamples = 17\nvalue = 186250802.765", fillcolor="#f3c7a6"] ;
169 -> 173 ;
174 [label="mse = 0.0\nsamples = 1\nvalue = 310650585.0", fillcolor="#eca16b"] ;
173 -> 174 ;
175 [label="ScreenFirst <= 3425.0\nmse = 4481666565989392.0\nsamples = 16\nvalue = 178475816.375", fillcolor="#f4c9aa"] ;
173 -> 175 ;
176 [label="Rating <= 6.1\nmse = 4542422270451692.0\nsamples = 7\nvalue = 149286294.429", fillcolor="#f6d2b8"] ;
175 -> 176 ;
177 [label="Users <= 43988.5\nmse = 5736232177934536.0\nsamples = 3\nvalue = 195711231.667", fillcolor="#f3c4a2"] ;
176 -> 177 ;
178 [label="Users <= 33126.5\nmse = 1027588161792256.0\nsamples = 2\nvalue = 145456016.0", fillcolor="#f6d3ba"] ;
177 -> 178 ;
179 [label="mse = 0.0\nsamples = 1\nvalue = 177512032.0", fillcolor="#f4c9aa"] ;
178 -> 179 ;
180 [label="mse = 0.0\nsamples = 1\nvalue = 113400000.0", fillcolor="#f8ddc9"] ;
178 -> 180 ;
181 [label="mse = 0.0\nsamples = 1\nvalue = 296221663.0", fillcolor="#eca572"] ;
177 -> 181 ;
182 [label="ScreenFirst <= 2027.0\nmse = 818266668040647.9\nsamples = 4\nvalue = 114467591.5", fillcolor="#f8dcc9"] ;
176 -> 182 ;
183 [label="mse = 0.0\nsamples = 1\nvalue = 163887757.0", fillcolor="#f5cdb1"] ;
182 -> 183 ;
184 [label="Rating <= 6.7\nmse = 5532109366480.0\nsamples = 3\nvalue = 97994203.0", fillcolor="#f9e1d0"] ;
182 -> 184 ;
185 [label="Users <= 65577.5\nmse = 754373891210.0\nsamples = 2\nvalue = 99579951.0", fillcolor="#f9e1d0"] ;
184 -> 185 ;
186 [label="mse = 0.0\nsamples = 1\nvalue = 98711404.0", fillcolor="#f9e1d0"] ;
185 -> 186 ;
187 [label="mse = 0.0\nsamples = 1\nvalue = 100448498.0", fillcolor="#f9e1cf"] ;
185 -> 187 ;
188 [label="mse = -1.0\nsamples = 1\nvalue = 94822707.0", fillcolor="#f9e2d2"] ;
184 -> 188 ;
189 [label="ScreenFirst <= 3518.5\nmse = 3256299074325663.5\nsamples = 9\nvalue = 201178777.889", fillcolor="#f2c29f"] ;
175 -> 189 ;
190 [label="Users <= 78991.5\nmse = 1230890424066304.0\nsamples = 2\nvalue = 286585693.0", fillcolor="#eda876"] ;
189 -> 190 ;
191 [label="mse = 0.0\nsamples = 1\nvalue = 251501645.0", fillcolor="#efb387"] ;
190 -> 191 ;
192 [label="mse = 16.0\nsamples = 1\nvalue = 321669741.0", fillcolor="#eb9d66"] ;
190 -> 192 ;
193 [label="ScreenFirst <= 4068.0\nmse = 1155433368719408.2\nsamples = 7\nvalue = 176776802.143", fillcolor="#f4c9ab"] ;
189 -> 193 ;
194 [label="Rating <= 6.75\nmse = 610289830642108.0\nsamples = 6\nvalue = 166510938.0", fillcolor="#f5cdb0"] ;
193 -> 194 ;
195 [label="Rating <= 6.4\nmse = 465570706345324.06\nsamples = 4\nvalue = 155251224.0", fillcolor="#f5d0b5"] ;
194 -> 195 ;
196 [label="Users <= 48221.0\nmse = 43760635877088.0\nsamples = 3\nvalue = 167261639.333", fillcolor="#f5ccaf"] ;
195 -> 196 ;
197 [label="mse = 0.0\nsamples = 1\nvalue = 176591618.0", fillcolor="#f4c9ab"] ;
196 -> 197 ;
198 [label="ScreenFirst <= 3655.5\nmse = 354577375300.0\nsamples = 2\nvalue = 162596650.0", fillcolor="#f5ceb2"] ;
196 -> 198 ;
199 [label="mse = 0.0\nsamples = 1\nvalue = 162001186.0", fillcolor="#f5ceb2"] ;
198 -> 199 ;
200 [label="mse = 0.0\nsamples = 1\nvalue = 163192114.0", fillcolor="#f5ceb1"] ;
198 -> 200 ;
201 [label="mse = -4.0\nsamples = 1\nvalue = 119219978.0", fillcolor="#f8dbc6"] ;
195 -> 201 ;
202 [label="Users <= 70649.0\nmse = 139041123064900.0\nsamples = 2\nvalue = 189030366.0", fillcolor="#f3c6a5"] ;
194 -> 202 ;
203 [label="mse = 0.0\nsamples = 1\nvalue = 200821936.0", fillcolor="#f2c29f"] ;
202 -> 203 ;
204 [label="mse = 0.0\nsamples = 1\nvalue = 177238796.0", fillcolor="#f4c9ab"] ;
202 -> 204 ;
205 [label="mse = -40.0\nsamples = 1\nvalue = 238371987.0", fillcolor="#f0b78d"] ;
193 -> 205 ;
206 [label="BoxOfficeFirst <= 43879266.0\nmse = 3210628474478640.0\nsamples = 11\nvalue = 305997958.455", fillcolor="#eca26d"] ;
162 -> 206 ;
207 [label="BoxOfficeFirst <= 42397380.0\nmse = 871878061982672.0\nsamples = 5\nvalue = 263351023.4", fillcolor="#efaf81"] ;
206 -> 207 ;
208 [label="BoxOfficeFirst <= 35418190.0\nmse = 429660141276128.0\nsamples = 4\nvalue = 274841780.0", fillcolor="#eeac7c"] ;
207 -> 208 ;
209 [label="BoxOfficeFirst <= 29837568.0\nmse = 112992871265912.0\nsamples = 2\nvalue = 255529810.5", fillcolor="#efb185"] ;
208 -> 209 ;
210 [label="mse = 0.0\nsamples = 1\nvalue = 244900000.0", fillcolor="#f0b58a"] ;
209 -> 210 ;
211 [label="mse = 8.0\nsamples = 1\nvalue = 266159621.0", fillcolor="#eeae80"] ;
209 -> 211 ;
212 [label="Users <= 153573.0\nmse = 423079348480.0\nsamples = 2\nvalue = 294153749.5", fillcolor="#eda673"] ;
208 -> 212 ;
213 [label="mse = 0.0\nsamples = 1\nvalue = 293503304.0", fillcolor="#eda673"] ;
212 -> 213 ;
214 [label="mse = -16.0\nsamples = 1\nvalue = 294804195.0", fillcolor="#eda672"] ;
212 -> 214 ;
215 [label="mse = -8.0\nsamples = 1\nvalue = 217387997.0", fillcolor="#f1bd97"] ;
207 -> 215 ;
216 [label="BoxOfficeFirst <= 113204108.0\nmse = 2380924406417904.0\nsamples = 6\nvalue = 341537071.0", fillcolor="#ea975c"] ;
206 -> 216 ;
217 [label="Rating <= 8.75\nmse = 2973312538278736.0\nsamples = 3\nvalue = 369207818.333", fillcolor="#e88f4f"] ;
216 -> 217 ;
218 [label="ScreenFirst <= 3739.5\nmse = 55664536391680.0\nsamples = 2\nvalue = 407523630.0", fillcolor="#e5833d"] ;
217 -> 218 ;
219 [label="mse = 0.0\nsamples = 1\nvalue = 400062763.0", fillcolor="#e68640"] ;
218 -> 219 ;
220 [label="mse = -32.0\nsamples = 1\nvalue = 414984497.0", fillcolor="#e58139"] ;
218 -> 220 ;
221 [label="mse = -16.0\nsamples = 1\nvalue = 292576195.0", fillcolor="#eda673"] ;
217 -> 221 ;
222 [label="Rating <= 6.85\nmse = 257195758586704.0\nsamples = 3\nvalue = 313866323.667", fillcolor="#eba069"] ;
216 -> 222 ;
223 [label="mse = 0.0\nsamples = 1\nvalue = 334185206.0", fillcolor="#ea9a60"] ;
222 -> 223 ;
224 [label="Users <= 117915.5\nmse = 76150903423184.0\nsamples = 2\nvalue = 303706882.5", fillcolor="#eca36e"] ;
222 -> 224 ;
225 [label="mse = 0.0\nsamples = 1\nvalue = 294980434.0", fillcolor="#eda572"] ;
224 -> 225 ;
226 [label="mse = 16.0\nsamples = 1\nvalue = 312433331.0", fillcolor="#eba06a"] ;
224 -> 226 ;
}